digraph Tree {
node [shape=box] ;
0 [label="Tetap belajar dari rumah <= 0.5\nmse = 0.715\nsamples = 96\nvalue = 2.312"] ;
1 [label="Belajar dengan berinteraksi bersama guru dalam kelompok besar <= 0.5\nmse = 0.631\nsamples = 65\nvalue = 2.123"] ;
0 -> 1 [labeldistance=2.5, labelangle=45, headlabel="True"] ;
2 [label="Karena dirumah saya ada wifi jadi sudah cukup bagus untuk masalah jaringan <= 0.5\nmse = 0.558\nsamples = 41\nvalue = 2.317"] ;
1 -> 2 ;
3 [label="Belajar mandiri dengan video interaktif <= 0.5\nmse = 0.499\nsamples = 40\nvalue = 2.275"] ;
2 -> 3 ;
4 [label="Merasa lebih lega/bebas/santai <= 0.5\nmse = 0.507\nsamples = 15\nvalue = 2.6"] ;
3 -> 4 ;
5 [label="Lelah secara fisik, misal karena tugas terlalu banyak <= 0.5\nmse = 0.331\nsamples = 13\nvalue = 2.769"] ;
4 -> 5 ;
6 [label="Tidak ada <= 0.5\nmse = 0.139\nsamples = 6\nvalue = 3.167"] ;
5 -> 6 ;
7 [label="mse = 0.0\nsamples = 4\nvalue = 3.0"] ;
6 -> 7 ;
8 [label="Learning Management System (contoh: Google Classroom, Seamolec, Edmodo, Moodle, Kelas Maya Rumah Belajar) <= 0.5\nmse = 0.25\nsamples = 2\nvalue = 3.5"] ;
6 -> 8 ;
9 [label="mse = 0.0\nsamples = 1\nvalue = 3.0"] ;
8 -> 9 ;
10 [label="mse = 0.0\nsamples = 1\nvalue = 4.0"] ;
8 -> 10 ;
11 [label="Lelah secara mental, misal karena gangguan kecemasan <= 0.5\nmse = 0.245\nsamples = 7\nvalue = 2.429"] ;
5 -> 11 ;
12 [label="mse = 0.0\nsamples = 3\nvalue = 2.0"] ;
11 -> 12 ;
13 [label="Kuota internet mahal/tidak ada <= 0.5\nmse = 0.188\nsamples = 4\nvalue = 2.75"] ;
11 -> 13 ;
14 [label="mse = 0.0\nsamples = 3\nvalue = 3.0"] ;
13 -> 14 ;
15 [label="mse = 0.0\nsamples = 1\nvalue = 2.0"] ;
13 -> 15 ;
16 [label="Alat peraga dan media belajar dari lingkungan sekitar <= 0.5\nmse = 0.25\nsamples = 2\nvalue = 1.5"] ;
4 -> 16 ;
17 [label="mse = 0.0\nsamples = 1\nvalue = 2.0"] ;
16 -> 17 ;
18 [label="mse = 0.0\nsamples = 1\nvalue = 1.0"] ;
16 -> 18 ;
19 [label="Pemantauan secara berkala dengan skrining awal, misal pengukuran suhu tubuh <= 0.5\nmse = 0.394\nsamples = 25\nvalue = 2.08"] ;
3 -> 19 ;
20 [label="Alat peraga dan media belajar dari lingkungan sekitar <= 0.5\nmse = 0.331\nsamples = 22\nvalue = 2.182"] ;
19 -> 20 ;
21 [label="Learning Management System (contoh: Google Classroom, Seamolec, Edmodo, Moodle, Kelas Maya Rumah Belajar) <= 0.5\nmse = 0.228\nsamples = 17\nvalue = 2.353"] ;
20 -> 21 ;
22 [label="Memberikan layanan konseling <= 0.5\nmse = 0.196\nsamples = 15\nvalue = 2.267"] ;
21 -> 22 ;
23 [label="Modul belajar mandiri dan Lembar Kerja Siswa (LKS) <= 0.5\nmse = 0.13\nsamples = 13\nvalue = 2.154"] ;
22 -> 23 ;
24 [label="Banyak belajar hal-hal baru <= 0.5\nmse = 0.076\nsamples = 12\nvalue = 2.083"] ;
23 -> 24 ;
25 [label="mse = 0.0\nsamples = 11\nvalue = 2.0"] ;
24 -> 25 ;
26 [label="mse = 0.0\nsamples = 1\nvalue = 3.0"] ;
24 -> 26 ;
27 [label="mse = 0.0\nsamples = 1\nvalue = 3.0"] ;
23 -> 27 ;
28 [label="mse = 0.0\nsamples = 2\nvalue = 3.0"] ;
22 -> 28 ;
29 [label="mse = 0.0\nsamples = 2\nvalue = 3.0"] ;
21 -> 29 ;
30 [label="Belajar dengan berinteraksi bersama guru  <= 0.5\nmse = 0.24\nsamples = 5\nvalue = 1.6"] ;
20 -> 30 ;
31 [label="mse = 0.0\nsamples = 3\nvalue = 2.0"] ;
30 -> 31 ;
32 [label="mse = 0.0\nsamples = 2\nvalue = 1.0"] ;
30 -> 32 ;
33 [label="Buku elektronik <= 0.5\nmse = 0.222\nsamples = 3\nvalue = 1.333"] ;
19 -> 33 ;
34 [label="mse = 0.0\nsamples = 2\nvalue = 1.0"] ;
33 -> 34 ;
35 [label="mse = 0.0\nsamples = 1\nvalue = 2.0"] ;
33 -> 35 ;
36 [label="mse = 0.0\nsamples = 1\nvalue = 4.0"] ;
2 -> 36 ;
37 [label="Memberikan pinjaman buku <= 0.5\nmse = 0.582\nsamples = 24\nvalue = 1.792"] ;
1 -> 37 ;
38 [label="Memberikan informasi fasilitas offline yang dapat digunakan sebagai bahan belajar <= 0.5\nmse = 0.322\nsamples = 22\nvalue = 1.636"] ;
37 -> 38 ;
39 [label="Memberikan informasi situs online yang dapat digunakan sebagai bahan belajar <= 0.5\nmse = 0.247\nsamples = 20\nvalue = 1.55"] ;
38 -> 39 ;
40 [label="Belajar mandiri dengan buku <= 0.5\nmse = 0.222\nsamples = 9\nvalue = 1.333"] ;
39 -> 40 ;
41 [label="Buku elektronik <= 0.5\nmse = 0.188\nsamples = 8\nvalue = 1.25"] ;
40 -> 41 ;
42 [label="Menerapkan etika batuk yang benar <= 0.5\nmse = 0.122\nsamples = 7\nvalue = 1.143"] ;
41 -> 42 ;
43 [label="mse = 0.0\nsamples = 6\nvalue = 1.0"] ;
42 -> 43 ;
44 [label="mse = 0.0\nsamples = 1\nvalue = 2.0"] ;
42 -> 44 ;
45 [label="mse = 0.0\nsamples = 1\nvalue = 2.0"] ;
41 -> 45 ;
46 [label="mse = 0.0\nsamples = 1\nvalue = 2.0"] ;
40 -> 46 ;
47 [label="Tidak ada <= 0.5\nmse = 0.198\nsamples = 11\nvalue = 1.727"] ;
39 -> 47 ;
48 [label="mse = 0.0\nsamples = 5\nvalue = 2.0"] ;
47 -> 48 ;
49 [label="Kuota internet mahal/tidak ada <= 0.5\nmse = 0.25\nsamples = 6\nvalue = 1.5"] ;
47 -> 49 ;
50 [label="mse = 0.0\nsamples = 2\nvalue = 2.0"] ;
49 -> 50 ;
51 [label="Alat peraga dan media belajar dari lingkungan sekitar <= 0.5\nmse = 0.188\nsamples = 4\nvalue = 1.25"] ;
49 -> 51 ;
52 [label="mse = 0.0\nsamples = 3\nvalue = 1.0"] ;
51 -> 52 ;
53 [label="mse = 0.0\nsamples = 1\nvalue = 2.0"] ;
51 -> 53 ;
54 [label="Modul belajar mandiri dan Lembar Kerja Siswa (LKS) <= 0.5\nmse = 0.25\nsamples = 2\nvalue = 2.5"] ;
38 -> 54 ;
55 [label="mse = 0.0\nsamples = 1\nvalue = 2.0"] ;
54 -> 55 ;
56 [label="mse = 0.0\nsamples = 1\nvalue = 3.0"] ;
54 -> 56 ;
57 [label="Aplikasi video conference (contoh: Google Meet, Zoom, Skype) <= 0.5\nmse = 0.25\nsamples = 2\nvalue = 3.5"] ;
37 -> 57 ;
58 [label="mse = 0.0\nsamples = 1\nvalue = 3.0"] ;
57 -> 58 ;
59 [label="mse = 0.0\nsamples = 1\nvalue = 4.0"] ;
57 -> 59 ;
60 [label="Learning Management System (contoh: Google Classroom, Seamolec, Edmodo, Moodle, Kelas Maya Rumah Belajar) <= 0.5\nmse = 0.658\nsamples = 31\nvalue = 2.71"] ;
0 -> 60 [labeldistance=2.5, labelangle=-45, headlabel="False"] ;
61 [label="Belajar mandiri dengan buku <= 0.5\nmse = 0.421\nsamples = 19\nvalue = 3.0"] ;
60 -> 61 ;
62 [label="Alat peraga dan media belajar dari lingkungan sekitar <= 0.5\nmse = 0.583\nsamples = 6\nvalue = 3.5"] ;
61 -> 62 ;
63 [label="mse = 0.0\nsamples = 4\nvalue = 4.0"] ;
62 -> 63 ;
64 [label="Modul belajar mandiri dan Lembar Kerja Siswa (LKS) <= 0.5\nmse = 0.25\nsamples = 2\nvalue = 2.5"] ;
62 -> 64 ;
65 [label="mse = 0.0\nsamples = 1\nvalue = 3.0"] ;
64 -> 65 ;
66 [label="mse = 0.0\nsamples = 1\nvalue = 2.0"] ;
64 -> 66 ;
67 [label="Belajar mandiri dengan video interaktif <= 0.5\nmse = 0.178\nsamples = 13\nvalue = 2.769"] ;
61 -> 67 ;
68 [label="Sudah cukup <= 0.5\nmse = 0.24\nsamples = 5\nvalue = 2.4"] ;
67 -> 68 ;
69 [label="mse = 0.0\nsamples = 2\nvalue = 2.0"] ;
68 -> 69 ;
70 [label="Belajar dengan berinteraksi bersama guru  <= 0.5\nmse = 0.222\nsamples = 3\nvalue = 2.667"] ;
68 -> 70 ;
71 [label="mse = 0.0\nsamples = 2\nvalue = 3.0"] ;
70 -> 71 ;
72 [label="mse = 0.0\nsamples = 1\nvalue = 2.0"] ;
70 -> 72 ;
73 [label="mse = 0.0\nsamples = 8\nvalue = 3.0"] ;
67 -> 73 ;
74 [label="Lelah secara fisik, misal karena tugas terlalu banyak <= 0.5\nmse = 0.688\nsamples = 12\nvalue = 2.25"] ;
60 -> 74 ;
75 [label="Belajar dengan berinteraksi bersama guru dalam kelompok besar <= 0.5\nmse = 0.359\nsamples = 8\nvalue = 1.875"] ;
74 -> 75 ;
76 [label="mse = 0.0\nsamples = 2\nvalue = 1.0"] ;
75 -> 76 ;
77 [label="Alat peraga dan media belajar dari lingkungan sekitar <= 0.5\nmse = 0.139\nsamples = 6\nvalue = 2.167"] ;
75 -> 77 ;
78 [label="mse = 0.0\nsamples = 5\nvalue = 2.0"] ;
77 -> 78 ;
79 [label="mse = 0.0\nsamples = 1\nvalue = 3.0"] ;
77 -> 79 ;
80 [label="Buku cetak <= 0.5\nmse = 0.5\nsamples = 4\nvalue = 3.0"] ;
74 -> 80 ;
81 [label="Memberikan subsidi kuota internet <= 0.5\nmse = 0.222\nsamples = 3\nvalue = 3.333"] ;
80 -> 81 ;
82 [label="mse = 0.0\nsamples = 2\nvalue = 3.0"] ;
81 -> 82 ;
83 [label="mse = 0.0\nsamples = 1\nvalue = 4.0"] ;
81 -> 83 ;
84 [label="mse = 0.0\nsamples = 1\nvalue = 2.0"] ;
80 -> 84 ;
}